digraph Tree {
node [shape=box, style="filled, rounded", color="black", fontname="helvetica"] ;
edge [fontname="helvetica"] ;
0 [label="x[0] <= 0.29\ngini = 0.24\nsamples = 20\nvalue = [5, 30]\nclass = peligroso", fillcolor="#5aade9"] ;
1 [label="gini = 0.49\nsamples = 5\nvalue = [5, 4]\nclass = noPeligroso", fillcolor="#fae6d7"] ;
0 -> 1 [labeldistance=2.5, labelangle=45, headlabel="True"] ;
2 [label="gini = 0.0\nsamples = 15\nvalue = [0, 26]\nclass = peligroso", fillcolor="#399de5"] ;
0 -> 2 [labeldistance=2.5, labelangle=-45, headlabel="False"] ;
}